svm_type c_svc
kernel_type linear
nr_class 10
total_sv 10
rho 0.2195121951219513 0.10000000000000009 0.1111111111111111 0.1282051282051282 0.05263157894736831 -0.06666666666666665 0.23404255319148926 0.0 -0.032258064516129004 -0.16129032258064524 -0.10526315789473684 -0.09523809523809529 -0.1489361702127659 -0.23404255319148937 0.05263157894736836 -0.1914893617021276 -0.21739130434782605 0.0370370370370372 0.02564102564102555 -0.047619047619047616 -0.16666666666666674 0.25925925925925936 -0.11764705882352944 -0.17241379310344818 0.0 -0.11111111111111116 -0.2592592592592593 0.23076923076923073 -0.23809523809523814 -0.20000000000000007 -0.07692307692307687 -0.17948717948717935 0.1578947368421052 -0.14285714285714285 -0.1499999999999999 -0.15384615384615374 0.23076923076923078 -0.0625 -0.1200000000000001 0.31707317073170727 0.125 0.04347826086956519 -0.33333333333333326 -0.3529411764705881 -0.04761904761904745
label 10 1 2 3 4 5 6 7 8 9
nr_sv 1 1 1 1 1 1 1 1 1 1
SV
0.04878048780487805 0.05 0.044444444444444446 0.05128205128205128 0.05263157894736842 0.06666666666666667 0.0425531914893617 0.05263157894736842 0.06451612903225806 1:0.0 2:0.0 3:0.0 4:1.0 5:0.0 6:0.0 7:0.0 8:0.0 9:0.0 10:0.0 11:1.0 12:1.0 13:1.0 14:1.0 15:0.0 16:0.0 17:0.0 18:1.0 19:1.0 20:0.0 21:0.0 22:1.0 23:1.0 24:0.0 25:1.0 26:1.0 27:0.0 28:0.0 29:0.0 30:0.0 31:1.0 32:1.0 33:1.0 34:1.0 35:0.0 36:0.0 37:0.0 38:0.0 39:1.0 40:1.0 41:1.0 42:1.0 43:0.0 44:0.0 45:0.0 46:0.0 47:1.0 48:1.0 49:1.0 50:1.0 51:0.0 52:0.0 53:0.0 54:0.0 55:1.0 56:1.0 57:0.0 58:1.0 59:1.0 60:0.0 61:0.0 62:1.0 63:1.0 64:0.0 65:0.0 66:0.0 67:1.0 68:1.0 69:1.0 70:0.0 71:0.0 72:0.0 73:0.0 74:0.0 75:0.0 76:1.0 77:1.0 78:0.0 79:0.0 80:0.0 
-0.04878048780487805 0.06451612903225806 0.05263157894736842 0.047619047619047616 0.0425531914893617 0.0425531914893617 0.05263157894736842 0.0425531914893617 0.043478260869565216 1:0.0 2:0.0 3:0.0 4:1.0 5:0.0 6:0.0 7:0.0 8:0.0 9:0.0 10:0.0 11:0.0 12:1.0 13:1.0 14:0.0 15:0.0 16:0.0 17:0.0 18:1.0 19:1.0 20:1.0 21:1.0 22:0.0 23:0.0 24:0.0 25:0.0 26:0.0 27:0.0 28:1.0 29:1.0 30:0.0 31:0.0 32:0.0 33:0.0 34:0.0 35:0.0 36:1.0 37:1.0 38:0.0 39:0.0 40:0.0 41:0.0 42:0.0 43:0.0 44:1.0 45:1.0 46:0.0 47:0.0 48:0.0 49:0.0 50:0.0 51:0.0 52:1.0 53:1.0 54:0.0 55:0.0 56:0.0 57:0.0 58:0.0 59:0.0 60:1.0 61:1.0 62:0.0 63:0.0 64:0.0 65:0.0 66:0.0 67:0.0 68:1.0 69:1.0 70:0.0 71:0.0 72:0.0 73:0.0 74:1.0 75:1.0 76:1.0 77:1.0 78:1.0 79:1.0 80:0.0 
-0.05 -0.06451612903225806 0.07407407407407407 0.05128205128205128 0.047619047619047616 0.05555555555555555 0.07407407407407407 0.058823529411764705 0.06896551724137931 1:0.0 2:0.0 3:1.0 4:1.0 5:1.0 6:1.0 7:0.0 8:0.0 9:0.0 10:1.0 11:1.0 12:0.0 13:0.0 14:1.0 15:1.0 16:0.0 17:0.0 18:1.0 19:0.0 20:0.0 21:0.0 22:0.0 23:1.0 24:1.0 25:0.0 26:0.0 27:0.0 28:0.0 29:0.0 30:0.0 31:1.0 32:1.0 33:0.0 34:0.0 35:0.0 36:0.0 37:0.0 38:0.0 39:1.0 40:0.0 41:0.0 42:0.0 43:0.0 44:0.0 45:1.0 46:1.0 47:0.0 48:0.0 49:0.0 50:0.0 51:0.0 52:1.0 53:1.0 54:0.0 55:0.0 56:0.0 57:0.0 58:0.0 59:1.0 60:1.0 61:0.0 62:0.0 63:0.0 64:0.0 65:0.0 66:1.0 67:1.0 68:0.0 69:0.0 70:0.0 71:0.0 72:0.0 73:1.0 74:1.0 75:1.0 76:1.0 77:1.0 78:1.0 79:1.0 80:1.0 
-0.044444444444444446 -0.05263157894736842 -0.07407407407407407 0.05555555555555555 0.07407407407407407 0.07407407407407407 0.07692307692307693 0.09523809523809523 0.06666666666666667 1:0.0 2:1.0 3:1.0 4:1.0 5:1.0 6:1.0 7:0.0 8:0.0 9:1.0 10:1.0 11:0.0 12:0.0 13:0.0 14:0.0 15:1.0 16:0.0 17:0.0 18:0.0 19:0.0 20:0.0 21:0.0 22:0.0 23:1.0 24:1.0 25:0.0 26:0.0 27:0.0 28:0.0 29:0.0 30:1.0 31:1.0 32:0.0 33:0.0 34:0.0 35:0.0 36:1.0 37:1.0 38:1.0 39:0.0 40:0.0 41:0.0 42:0.0 43:0.0 44:0.0 45:0.0 46:1.0 47:1.0 48:0.0 49:0.0 50:0.0 51:0.0 52:0.0 53:0.0 54:0.0 55:1.0 56:1.0 57:0.0 58:0.0 59:0.0 60:0.0 61:0.0 62:0.0 63:1.0 64:0.0 65:1.0 66:1.0 67:0.0 68:0.0 69:0.0 70:1.0 71:1.0 72:0.0 73:0.0 74:1.0 75:1.0 76:1.0 77:1.0 78:1.0 79:0.0 80:0.0 
-0.05128205128205128 -0.047619047619047616 -0.05128205128205128 -0.05555555555555555 0.05128205128205128 0.05128205128205128 0.05263157894736842 0.05714285714285714 0.05 1:0.0 2:0.0 3:0.0 4:0.0 5:0.0 6:1.0 7:0.0 8:0.0 9:0.0 10:0.0 11:0.0 12:0.0 13:0.0 14:1.0 15:1.0 16:0.0 17:0.0 18:0.0 19:0.0 20:0.0 21:1.0 22:1.0 23:0.0 24:0.0 25:0.0 26:0.0 27:1.0 28:1.0 29:0.0 30:1.0 31:1.0 32:0.0 33:0.0 34:1.0 35:1.0 36:0.0 37:0.0 38:1.0 39:1.0 40:0.0 41:1.0 42:1.0 43:0.0 44:0.0 45:0.0 46:1.0 47:0.0 48:0.0 49:1.0 50:1.0 51:1.0 52:1.0 53:1.0 54:1.0 55:0.0 56:1.0 57:0.0 58:0.0 59:0.0 60:0.0 61:0.0 62:1.0 63:1.0 64:0.0 65:0.0 66:0.0 67:0.0 68:0.0 69:0.0 70:1.0 71:1.0 72:0.0 73:0.0 74:0.0 75:0.0 76:0.0 77:0.0 78:1.0 79:1.0 80:0.0 
-0.05263157894736842 -0.0425531914893617 -0.047619047619047616 -0.07407407407407407 -0.05128205128205128 0.07692307692307693 0.05128205128205128 0.0625 0.08 1:1.0 2:1.0 3:0.0 4:0.0 5:1.0 6:1.0 7:1.0 8:0.0 9:1.0 10:1.0 11:0.0 12:0.0 13:0.0 14:0.0 15:0.0 16:0.0 17:0.0 18:1.0 19:0.0 20:0.0 21:0.0 22:0.0 23:0.0 24:0.0 25:1.0 26:1.0 27:0.0 28:0.0 29:1.0 30:1.0 31:0.0 32:0.0 33:1.0 34:1.0 35:1.0 36:0.0 37:0.0 38:1.0 39:1.0 40:0.0 41:0.0 42:0.0 43:0.0 44:0.0 45:0.0 46:0.0 47:1.0 48:1.0 49:0.0 50:0.0 51:0.0 52:0.0 53:0.0 54:0.0 55:1.0 56:1.0 57:1.0 58:1.0 59:0.0 60:0.0 61:0.0 62:0.0 63:1.0 64:1.0 65:0.0 66:1.0 67:1.0 68:0.0 69:0.0 70:1.0 71:1.0 72:0.0 73:0.0 74:0.0 75:1.0 76:0.0 77:1.0 78:1.0 79:0.0 80:0.0 
-0.06666666666666667 -0.0425531914893617 -0.05555555555555555 -0.07407407407407407 -0.05128205128205128 -0.07692307692307693 0.04878048780487805 0.125 0.08695652173913043 1:0.0 2:0.0 3:1.0 4:1.0 5:1.0 6:1.0 7:0.0 8:0.0 9:0.0 10:1.0 11:1.0 12:0.0 13:0.0 14:1.0 15:1.0 16:0.0 17:1.0 18:1.0 19:0.0 20:0.0 21:0.0 22:0.0 23:0.0 24:0.0 25:1.0 26:1.0 27:0.0 28:0.0 29:0.0 30:0.0 31:0.0 32:0.0 33:1.0 34:1.0 35:0.0 36:1.0 37:1.0 38:1.0 39:0.0 40:0.0 41:1.0 42:1.0 43:1.0 44:0.0 45:0.0 46:1.0 47:1.0 48:0.0 49:1.0 50:1.0 51:0.0 52:0.0 53:0.0 54:0.0 55:1.0 56:1.0 57:1.0 58:1.0 59:0.0 60:0.0 61:0.0 62:0.0 63:1.0 64:1.0 65:0.0 66:1.0 67:1.0 68:0.0 69:0.0 70:0.0 71:1.0 72:0.0 73:0.0 74:0.0 75:1.0 76:1.0 77:1.0 78:0.0 79:0.0 80:0.0 
-0.0425531914893617 -0.05263157894736842 -0.07407407407407407 -0.07692307692307693 -0.05263157894736842 -0.05128205128205128 -0.04878048780487805 0.06060606060606061 0.058823529411764705 1:1.0 2:0.0 3:1.0 4:1.0 5:1.0 6:1.0 7:1.0 8:0.0 9:0.0 10:0.0 11:0.0 12:0.0 13:0.0 14:0.0 15:1.0 16:1.0 17:0.0 18:0.0 19:0.0 20:0.0 21:0.0 22:0.0 23:1.0 24:1.0 25:0.0 26:0.0 27:0.0 28:0.0 29:0.0 30:1.0 31:1.0 32:0.0 33:0.0 34:0.0 35:0.0 36:0.0 37:1.0 38:1.0 39:0.0 40:0.0 41:0.0 42:0.0 43:0.0 44:1.0 45:1.0 46:0.0 47:0.0 48:0.0 49:0.0 50:0.0 51:1.0 52:1.0 53:0.0 54:0.0 55:0.0 56:0.0 57:0.0 58:1.0 59:1.0 60:0.0 61:0.0 62:0.0 63:0.0 64:0.0 65:1.0 66:1.0 67:0.0 68:0.0 69:0.0 70:0.0 71:0.0 72:0.0 73:1.0 74:0.0 75:0.0 76:0.0 77:0.0 78:0.0 79:0.0 80:0.0 
-0.05263157894736842 -0.0425531914893617 -0.058823529411764705 -0.09523809523809523 -0.05714285714285714 -0.0625 -0.125 -0.06060606060606061 0.09523809523809523 1:0.0 2:0.0 3:1.0 4:1.0 5:1.0 6:1.0 7:0.0 8:0.0 9:0.0 10:0.0 11:1.0 12:0.0 13:0.0 14:1.0 15:1.0 16:0.0 17:1.0 18:0.0 19:0.0 20:0.0 21:0.0 22:0.0 23:1.0 24:1.0 25:0.0 26:1.0 27:1.0 28:0.0 29:0.0 30:1.0 31:1.0 32:0.0 33:0.0 34:0.0 35:1.0 36:1.0 37:1.0 38:1.0 39:0.0 40:0.0 41:0.0 42:0.0 43:1.0 44:0.0 45:0.0 46:1.0 47:1.0 48:0.0 49:1.0 50:1.0 51:0.0 52:0.0 53:0.0 54:0.0 55:1.0 56:1.0 57:1.0 58:1.0 59:0.0 60:0.0 61:0.0 62:0.0 63:0.0 64:1.0 65:0.0 66:0.0 67:1.0 68:0.0 69:0.0 70:1.0 71:1.0 72:0.0 73:0.0 74:0.0 75:1.0 76:1.0 77:1.0 78:0.0 79:0.0 80:0.0 
-0.06451612903225806 -0.043478260869565216 -0.06896551724137931 -0.06666666666666667 -0.05 -0.08 -0.08695652173913043 -0.058823529411764705 -0.09523809523809523 1:0.0 2:0.0 3:1.0 4:1.0 5:1.0 6:1.0 7:0.0 8:0.0 9:0.0 10:0.0 11:1.0 12:0.0 13:0.0 14:1.0 15:1.0 16:0.0 17:1.0 18:1.0 19:0.0 20:0.0 21:0.0 22:0.0 23:1.0 24:0.0 25:1.0 26:1.0 27:0.0 28:0.0 29:0.0 30:0.0 31:1.0 32:1.0 33:0.0 34:1.0 35:1.0 36:0.0 37:0.0 38:1.0 39:1.0 40:1.0 41:0.0 42:0.0 43:1.0 44:1.0 45:1.0 46:0.0 47:1.0 48:1.0 49:0.0 50:0.0 51:0.0 52:0.0 53:0.0 54:0.0 55:1.0 56:1.0 57:0.0 58:1.0 59:0.0 60:0.0 61:0.0 62:0.0 63:0.0 64:1.0 65:0.0 66:1.0 67:1.0 68:0.0 69:0.0 70:1.0 71:1.0 72:0.0 73:0.0 74:0.0 75:1.0 76:1.0 77:0.0 78:1.0 79:0.0 80:0.0 
